//_q15 circularMatrixColumn[256];
//_q15 inputMatrixColumn[256];

//#include "DSPLib.h"

volatile uint32_t cc1=0, cc2=0, cc3=0;



//#pragma DATA_SECTION(weight_1,".image")
const int16_t weight_1[1][2][8][8]= {{{{-3858,-803,-1967,-1092,-3618,1643,-3671,-261,},{1423,-1380,2324,516,2251,2628,-1808,1488,},{-1772,1283,-2140,1894,829,-1602,-2009,1059,},{3821,1965,-395,-198,2328,-2846,1361,-1357,},{2369,-1461,202,1383,2814,-602,3736,-3465,},{-730,-4084,339,1162,-1658,1701,-663,-3559,},{3144,2525,2070,3267,1506,2177,3398,-825,},{-3194,-2014,-546,-450,-27,2347,1313,-3028,},},{{-1230,-963,2492,-1485,-1713,-658,-1041,-1008,},{-4007,3649,2179,-1938,-2555,142,2333,-2939,},{-1546,1713,-2641,-456,-3088,3799,2207,-3786,},{-2261,1451,224,1085,-3350,-2193,1858,-3123,},{-859,1801,2125,254,1187,1822,-478,-1119,},{3127,3992,1897,-1790,-3562,-4042,28,-1571,},{-1030,-575,3873,3882,-382,-1229,1989,-326,},{-3897,1335,3921,-3246,-884,888,-3335,-3506,},},{{3057,-1450,2389,366,999,-2729,-874,2701,},{1878,-1184,503,3135,-3588,2631,-1231,-833,},{1949,-3402,-618,3914,1474,-1514,-892,3230,},{1547,2776,-2637,1180,732,713,3803,2267,},{2823,1798,1721,-712,-3615,-3460,-2551,-2651,},{1928,1267,-1167,-3120,4032,3077,1947,4054,},{-2180,-2332,-2397,-198,-3615,3242,105,2039,},{-2249,-421,538,-1121,3866,-1871,1271,-2779,},},{{-484,-1086,1767,2861,996,-371,-1048,3211,},{-967,2956,-1822,3375,4079,2807,2349,1524,},{-2013,48,1410,-1070,734,2398,-3795,-3728,},{-2450,499,-759,882,-974,-2681,543,2774,},{-2459,3590,1008,4038,-3754,-3920,1389,-3821,},{-3356,2082,1988,-3732,2947,-796,3040,-2403,},{-3894,-2715,-634,-4090,-279,-2044,-953,0,},{229,-4006,2106,-2510,2496,3753,-1365,459}}}};

//#pragma DATA_SECTION(weight_2,".text")
const int16_t weight_2[2][4][8][8] = {{{{974,-1122,-1378,-357,401,-1035,-49,-885,},{-797,-280,-780,1573,538,1832,1849,334,},{-852,1245,-71,1516,-437,1811,270,-455,},{-1336,1515,266,708,827,-105,-1029,-611,},{-91,1271,-149,-519,-278,336,1634,1545,},{-119,271,1857,899,-216,1214,932,-550,},{828,162,-760,-160,1927,615,-1690,1305,},{440,1007,8,814,612,1798,1080,-896,},},{{1089,564,-1035,1993,-1434,-1665,663,865,},{155,77,858,1449,-990,642,-754,-1059,},{-1063,-1524,1727,-693,-575,-49,-1334,1327,},{-637,1087,594,-2032,-1883,-1996,1837,1868,},{700,-851,673,-1547,332,-279,1403,128,},{-9,-181,1965,-1432,928,-1842,376,-1716,},{994,1832,-982,1836,-1833,977,348,-468,},{-282,818,-373,-1980,-739,1737,-1763,-690,},},{{-1343,-1032,782,1068,-760,-1718,-1368,1277,},{357,837,1054,-1319,-1543,-1459,2013,60,},{116,-1998,337,-1904,-1341,131,-1826,915,},{1453,-858,1488,1594,-1890,104,-543,-317,},{1151,-1050,-1359,234,428,-1103,-895,-1842,},{1160,-1044,988,-1695,-1368,-67,2035,-266,},{-196,-450,295,-632,1583,208,1053,67,},{1537,-1294,-1045,-809,-850,146,947,-1508,},},{{-1026,447,-1792,197,1445,-1683,726,42,},{1108,-963,-1225,-915,-297,1725,-125,-1502,},{-1163,-484,-600,-177,-824,-976,571,612,},{-860,773,-810,95,-422,51,1670,-828,},{1849,-93,-1391,717,230,2009,1568,-1902,},{1760,1877,1067,-104,1985,132,119,-95,},{1103,-177,199,-799,260,1051,1090,1920,},{184,-1898,-1248,-984,-160,-1707,1639,1715,},},{{-1146,-1633,-679,1691,-1033,-1305,755,1740,},{145,541,1327,-599,-1842,171,-1151,814,},{-1077,1916,-199,1625,-1453,-1751,-973,-507,},{1557,-1591,-790,610,160,-897,1352,-1159,},{972,491,-1151,300,638,-204,-633,994,},{-880,-461,-281,147,309,416,-1738,-1289,},{529,1694,-1337,-582,-1304,-1596,-1811,605,},{-151,-1053,1999,-245,286,2046,-1459,-683,},},{{-1259,-1744,1824,-1878,-453,-827,-1169,-456,},{-500,-1770,-896,908,798,1830,-428,-1735,},{1099,-700,-592,967,2041,1751,406,-395,},{439,-570,1458,481,1304,-68,256,1366,},{-924,1801,-1194,1525,-1367,-1665,-1698,-96,},{793,369,-1496,-724,-1387,686,479,846,},{1685,-847,-1323,-1338,-1049,1476,1567,-709,},{-189,-1087,-478,-1835,948,966,-1480,-106,},},{{-28,-132,939,1889,811,-627,1382,-132,},{254,1215,-293,791,-121,1052,1469,437,},{-151,-1630,-1115,-440,1821,83,720,-1149,},{468,-1415,-1021,-1874,1383,-1350,-1188,1313,},{1530,1090,1756,-1335,521,-1016,-1842,-1138,},{-769,-282,-414,-91,-1869,1563,1937,1125,},{2009,-559,-189,-1744,228,-1495,-1897,-73,},{-942,-1621,85,-258,1863,-113,467,1663,},},{{-173,364,506,-371,-1651,747,606,-167,},{-1921,1754,633,-1007,1906,-1253,-65,333,},{-435,-790,-974,1178,-63,375,1735,-1407,},{-280,-1485,-510,-1169,464,53,1030,1269,},{-1313,1563,448,819,1010,1303,1358,-1856,},{-2025,1564,-446,-1641,1403,-1484,1722,-69,},{-1371,583,268,-1432,-1684,-1331,-1084,-43,},{1668,687,132,-1157,-1960,522,-1940,1563,},},},{{{1073,-121,1354,-718,-601,1893,360,287,},{210,133,86,-1779,1976,1955,-1409,506,},{1692,396,880,1525,869,-370,-1702,-965,},{-1219,41,-1450,1300,403,-887,-1186,670,},{-490,391,192,254,-283,-401,-480,789,},{-1320,47,-832,-1946,576,631,1822,1345,},{2004,-1609,-1782,636,1003,902,-1348,1602,},{-1780,545,-784,-737,1618,1771,795,917,},},{{845,1497,-1539,-1417,1235,1393,1332,1175,},{-1746,675,-74,314,-782,1981,-110,-1401,},{1061,-42,-1276,-905,-1291,402,439,-566,},{168,-1111,-2031,-49,1941,-1525,406,-1029,},{-322,478,-1009,-1756,-31,-152,1482,817,},{1177,-1286,-1919,-1237,-1645,-71,-608,-188,},{-578,-338,455,2007,-422,1681,1839,980,},{-540,544,-1342,-174,-957,-1568,-1734,-739,},},{{-1441,1240,940,430,866,239,-701,-328,},{-537,-864,-1246,-308,-1320,-1184,-1282,1900,},{2020,1123,-416,538,847,319,1059,772,},{661,1947,-1700,196,1639,1675,-579,1366,},{-1220,-128,1853,-348,1065,2043,-873,873,},{-804,-563,1518,648,-1780,1919,1448,1136,},{232,942,-640,-714,1078,319,1962,36,},{-116,1189,-996,-1819,68,2014,-1564,321,},},{{-1480,-532,-1250,-1119,1879,-976,924,1095,},{273,-1284,-146,-403,2040,1413,232,1092,},{-1603,1177,961,2023,-581,-1359,1703,1998,},{160,449,1991,-1735,-627,-1508,977,1367,},{-1763,-330,-1856,1511,1634,667,-15,-21,},{1369,705,-1563,408,1634,1332,-1447,-1600,},{1284,1657,-1029,-1280,474,-1035,1057,769,},{1617,-411,-602,-1601,1822,1048,228,-1248,},},{{-1632,657,-471,-2012,39,24,1872,418,},{-1498,1173,1173,827,-836,1213,-675,96,},{701,-858,1809,1835,151,-311,-1087,1398,},{-792,1774,335,1610,1051,1487,-547,-285,},{-1822,1189,-319,-1357,-605,-1799,1657,-258,},{-452,223,143,1269,-1197,1639,-1041,214,},{-396,224,-92,833,-1220,-1258,1318,-1674,},{1537,-1993,-325,832,916,322,-51,1971,},},{{-548,1096,1447,278,-1684,-1617,1854,-444,},{-170,-920,-1146,1019,-53,350,-1675,1666,},{1332,2035,1587,881,240,-1727,-1486,25,},{1205,48,1014,126,-352,388,-3,-1083,},{-735,1607,1428,-303,-1498,1639,-1195,89,},{655,-38,-587,1678,1184,-1974,-1118,56,},{837,835,-528,-1482,1926,-1513,-1526,2008,},{766,909,-1216,-1271,597,-345,1611,-688,},},{{-508,1445,1918,-862,-1660,1131,-1002,-1722,},{-1863,1928,1950,-1562,-900,543,199,-135,},{-307,-490,-1462,1,226,1904,-402,860,},{1368,-1963,-193,2033,-725,586,-203,-213,},{1269,-198,-1332,990,-662,54,1002,-740,},{-1574,-1350,1910,-700,1188,-1364,1444,1712,},{153,-677,1323,788,-729,-1681,1272,-939,},{819,-1953,-1877,1196,-657,1776,-145,1416,},},{{-1014,481,62,-1707,-1242,442,346,-998,},{129,-1587,1080,-1070,1018,-1545,1059,1511,},{1041,1577,1823,1434,127,1558,-405,454,},{677,822,-1307,393,-735,1062,-207,-147,},{1165,1279,-776,1205,48,-1326,-35,1813,},{1350,1672,-307,1590,1606,1133,-229,-1376,},{-386,253,-979,1290,-1974,-922,-1145,-832,},{282,-395,648,861,1423,-1842,-1009,1671,},},},{{{79,-1255,533,1761,858,-1836,-431,653,},{-377,-637,-1795,209,548,-1861,390,616,},{764,1334,-1210,667,189,-594,-124,2020,},{65,-552,30,-988,-1188,-461,1060,-158,},{-479,850,1136,-377,-517,346,-1113,1509,},{-571,-689,1872,-1585,-550,1853,-951,-428,},{1963,-677,945,878,395,-1736,-1326,-1635,},{-2018,-571,240,-1793,-1854,102,-761,377,},},{{510,-43,70,859,585,1376,-490,469,},{-20,-702,-1374,-567,-1938,242,-1627,-712,},{-800,1755,-1669,-489,733,578,1680,497,},{1203,-1229,1271,44,-227,-919,758,1060,},{-1499,-1583,817,-1812,-1926,1481,651,157,},{-11,850,-1462,1702,-285,200,-1938,124,},{-1251,1152,-1945,1845,-480,-698,-13,-1674,},{660,1670,-860,-665,-1706,498,1508,1667,},},{{-1340,-1759,-15,-728,-488,674,-480,229,},{-48,1560,706,-741,-1540,1359,-217,823,},{-885,1451,1388,97,531,411,776,-255,},{-1764,-1434,317,-2039,-1953,-1128,1059,-153,},{-1455,-1367,-795,-1509,1911,-1312,-1085,-1439,},{-741,1628,749,152,-2020,827,1916,-32,},{1392,-660,-1920,-51,816,-899,118,342,},{1965,-1068,-1779,-953,1475,-950,-134,-1472,},},{{1710,1878,-507,-1185,-889,1341,-1768,-926,},{-54,1330,-275,-1508,-1386,664,-18,-507,},{1287,779,138,-602,-1346,-2020,985,28,},{1691,-733,-1976,-1122,-1398,-407,-1805,825,},{1475,58,-2038,712,-433,535,-613,-1562,},{-1656,605,-646,1839,-264,268,1348,1912,},{744,1724,1643,2029,-1706,832,-937,-1477,},{235,1499,1773,-31,848,-147,298,-515,},},{{-1603,-423,1289,1898,-454,1843,811,386,},{1542,1125,-1829,-60,-1899,-1330,310,444,},{2001,-559,1642,1927,-261,1902,99,746,},{402,1218,757,-403,-1479,1260,94,1971,},{-1376,-1410,-724,1456,-747,288,19,-658,},{235,-1425,-1022,960,-1398,1570,1964,654,},{-1849,648,317,-1492,-837,1982,1041,1583,},{-551,339,-1051,328,1850,2015,1370,-1333,},},{{1991,774,-901,-1631,1236,-973,-1640,287,},{1044,-455,211,-900,1574,1874,1336,-1980,},{-1870,1137,1774,1093,204,-408,-1537,-285,},{1933,-212,-1965,296,-1860,1453,-118,249,},{372,-279,426,-1500,320,785,-1455,-1956,},{36,553,-576,-1290,-131,999,-1193,-1910,},{1978,-1931,-315,961,-1272,-182,-80,284,},{480,-981,1396,257,2022,139,-1008,68,},},{{-441,1836,-1612,-709,-207,-1727,-217,-1484,},{513,359,-1893,-1824,-2006,222,422,-424,},{1464,-1874,765,1516,-1815,-260,1678,916,},{-150,-251,1391,-205,-1763,-567,1246,934,},{-251,656,-872,-1196,1283,-1571,-1524,1364,},{-1259,-1341,1681,1254,-1802,-363,-2012,-1105,},{-1347,-297,-736,-1082,1226,-1296,-847,55,},{531,1707,-580,-558,347,-187,686,139,},},{{1995,1252,-1994,-67,1141,-318,1604,1754,},{-422,693,-27,162,1783,456,1695,729,},{-361,1814,-1357,-1553,853,1464,-1419,220,},{-1226,952,-1406,-1707,-276,1894,-736,-1762,},{-559,744,986,1840,497,1167,-41,-592,},{-79,1796,453,660,215,-1122,-217,-696,},{1967,-166,435,1783,-646,1048,-1027,-1038,},{1010,199,1422,259,78,1488,-195,-1189,},},},{{{424,2037,-74,-1657,-1352,-1886,-375,234,},{675,390,470,283,-181,-918,482,269,},{-575,1492,-1993,601,-1156,1083,1601,1450,},{785,-977,-451,-574,247,-994,995,1192,},{-829,-589,-1438,-1137,-1008,1426,-1750,613,},{1836,-1360,-1805,1109,1254,856,1613,1294,},{-318,1515,-1029,876,-1235,459,1106,766,},{1115,-309,702,261,1704,1191,-1485,803,},},{{657,918,-1503,-823,1998,30,833,-1517,},{-1690,1616,-909,-1106,-88,-148,894,1277,},{1817,-606,-531,-1605,-1040,-382,-1048,50,},{-439,1177,-1788,-41,-774,137,-1106,-2016,},{-47,183,1778,-1394,-305,1658,1972,312,},{-998,1207,-1483,-1716,175,-1195,653,-886,},{-1480,-748,-1334,-1441,1077,-205,-878,-2007,},{1568,-1211,1667,-1738,-943,1967,858,-1313,},},{{-1054,-1757,612,1382,-272,-148,525,-301,},{172,841,1576,1045,501,1754,-1825,-1348,},{1664,1904,-954,1608,-234,-572,-79,-532,},{563,155,-10,-861,1243,-1269,-28,1348,},{-1091,-1367,544,-1693,-854,1787,1180,1852,},{-1958,-1926,509,725,-1186,737,353,-870,},{1912,1572,1696,-667,12,-975,1676,1860,},{-1015,595,1739,260,-689,-313,-1343,2005,},},{{-945,-1289,-1870,-239,1926,742,106,-1738,},{-237,-1915,327,-747,1630,1297,-1749,1155,},{-526,-2002,-705,250,1125,117,1553,-1831,},{-891,-2033,-229,-1464,1183,1238,-853,1899,},{-1419,-1550,-400,449,1840,-1392,1603,823,},{-1000,-1340,681,-162,1639,245,-1889,-642,},{-793,-1175,-273,868,-1276,-380,-887,1282,},{1578,1688,2005,-975,-1433,1469,886,336,},},{{281,324,404,-507,-588,-1504,-175,-1558,},{-429,-1851,1579,-1584,720,2030,1398,2043,},{-809,-1641,-1749,-367,-1438,-780,-979,1999,},{667,353,-981,-547,1840,859,923,-201,},{-1949,413,1579,1460,623,-1574,984,-1344,},{1585,1224,1515,-1566,412,-1050,1595,1245,},{2009,102,-698,1661,1418,52,873,-892,},{1174,1325,1333,-1077,753,-398,1995,-548,},},{{1935,-1349,-177,-1175,-1037,1545,1802,1168,},{-1376,-1062,-1722,-687,612,1436,-903,-1164,},{683,1666,171,1477,1740,-356,1902,1494,},{549,-1775,-632,-438,1,-1790,1555,1401,},{303,-1660,-1340,-2032,-722,1250,-1559,1374,},{-360,-197,-697,445,-725,-1020,322,-1664,},{728,-1505,1566,1427,-143,101,177,699,},{-316,324,-186,-1332,788,-1654,-353,1929,},},{{1990,-1235,1780,-1219,886,1045,298,-937,},{814,1408,-1331,-562,750,-803,-1076,840,},{1745,1094,-1011,-279,957,88,-1052,611,},{1604,621,1734,-415,-213,1483,-629,-417,},{-437,1591,-204,1232,761,937,-373,-1996,},{1971,-483,588,-1911,219,101,1722,1361,},{-1379,553,1545,1307,-1592,1967,328,1287,},{155,532,1522,262,1225,1434,1208,1069,},},{{1731,-727,-1765,1855,-1672,-544,1627,-1372,},{1537,1902,1064,-152,-520,1437,-1473,-92,},{-1786,-792,142,-577,797,-780,-1572,1652,},{585,-418,57,-1454,-254,1624,-1061,-1696,},{869,-1237,-945,1997,-1858,-1191,1125,148,},{646,1772,159,-1551,195,-1932,327,-55,},{-1265,1211,592,156,1257,1206,738,457,},{301,267,1124,-1366,562,1768,514,-678}}}};

//#pragma DATA_SECTION(weight_3,".image")
const int16_t weight_3[512] = {-892,2013,-958,3019,-2969,-387,-1041,-676,7119,1790,-1397,-1968,-487,-4425,-1017,1194,1889,-1535,-2338,754,7205,-1808,5312,-4351,-864,4531,-2631,716,6272,116,-1199,442,3305,-2915,-3543,-2633,1566,433,930,-1222,1675,-4867,-6,-2936,1872,-2218,-9748,1785,-1857,1019,3529,1696,-3683,-4361,-801,-3943,-1605,-4935,3187,-1711,1,871,-2367,-1039,-985,1009,2423,6068,-1154,-6124,2186,4625,-466,591,-2301,7267,1092,6251,-1464,3322,-469,571,-2923,-1239,-545,958,4565,-1147,-746,-4142,-861,-1749,-1972,264,-5655,-1061,5721,672,1656,-3020,-196,1790,6011,3732,6602,2348,-1869,-7316,178,1258,1978,-3512,4251,3183,-2860,-8829,-4477,-3726,-3756,1732,39,-4553,-3012,-2323,-1802,2619,4332,1638,1833,-3607,-5805,2246,4113,-469,619,-4552,-3972,-152,-3337,-335,2889,379,610,3348,2348,22,-4393,-909,2429,1969,3545,905,-936,-4960,-2408,3875,-3355,3146,-817,4655,-3958,-4602,-5439,1019,-2864,-950,-839,9991,3880,2954,1022,-299,-804,-2980,-4162,-3095,3599,-5794,-8404,2359,7155,217,-10375,906,-5058,-6926,2154,-18,117,-2897,-326,1909,-2526,-6291,892,-5306,6225,2422,-1678,-1361,8434,-2053,-51,-3414,-1558,5457,-266,896,-2475,-220,156,-2567,-4890,-1406,212,-1226,2398,4924,-252,559,-1430,782,672,-1891,2298,-1216,-3797,-2735,163,-379,1715,-4441,1901,609,-860,4419,-1108,2157,-1697,4499,-2433,-1819,-1223,-5275,971,2684,-4836,-1685,-952,2552,4463,-5944,3442,-1891,713,-2352,71,-346,-1596,-587,5743,-1986,-967,3733,4385,-1438,-1380,3979,-2562,-6320,5374,-4610,-1598,-1917,1698,2152,-2609,-754,6257,2127,-2830,-2828,1288,-924,3224,-1795,3399,973,-2397,2283,259,-469,1433,-1009,843,-292,4245,-5886,4753,4281,-1461,3337,4768,-6437,2741,986,2865,4945,3612,-1889,-1023,121,324,-2759,1374,-5059,-6366,263,682,589,-3514,-5639,5310,14,-4395,4953,6206,2936,-4023,88,-337,2100,-2411,1312,25,5167,-618,-3979,-2643,1280,-3379,3343,1343,4845,8491,498,1473,-2640,-1534,835,-118,204,4754,-6216,39,810,4902,3092,285,-1406,-3848,-2791,2345,-3268,-53,4855,7534,2063,-1864,-893,-4848,1768,-2659,3577,359,1369,1468,-1803,2258,-524,-149,-3603,-4316,-4543,1211,-2920,-2109,-2556,-811,7858,-4264,1642,1601,-4480,3446,-2244,-1621,1041,2179,-997,-4279,6933,3440,-5661,-2925,-857,2543,-533,4295,555,227,-3890,613,-4890,-1147,1384,3033,422,-1544,-6783,-6347,480,-2639,-49,-5145,-6478,-428,-1160,4873,-3746,-801,5556,-1584,-1881,-3637,-4839,4021,-2181,-2427,-1854,691,4150,2094,6978,-1107,-12239,-1355,95,-758,-744,-717,-38,95,-1905,3576,2781,-8980,-5187,3092,-681,-682,-2093,-2490,3339,-3420,3143,113,-1532,4058,1148,-638,-898,-2623,-897,8062,-351,2637,1396,-1853,434,3399,555,5934,964,-114,-1932,4346,-667,306,2223,722,-1320,2596,-5805,2908,-650,-8466,-6020,-5562,-881,3479,-1287,2587,-945,984,-1017,5705,3152,-271,-522,783,1946,-3287,93,-2364,264,3375,3209,1374,4639,-4618,806,-8157,3549,3729,147,-1494,-3151,-5825,-6154,-8221,3730,764,-1814,-4556,-645,2475,1506,742,1115,-456,1032,3689,1399,-1904,1455,343,-6650,-4283,-4131,-1713,-8077,2780,-3095,2284,2901,-563,-734,684,6907,1046,-1123,1605,-6866,2131,3807,1347,-615,1992,-2795,-349,-158,-1846,854,31,-1614,-2276,542,6619,3094,5265,75,-1695,-9071,-568,-2379,-2187,-2223,-3017,2865,-3841,898,120,-2034,-2123,4714,4149,-4738,-1502,1428,-2608,1108,4761,2743,-18,5633,-4580,-6986,-1523,-360,-483,-2109,-2476,3663,-6973,-5817,1113,5382,-5910,1220,-1365,2485,-2625,-5956,2866,2490,6894,770,-852,1891,1070,-2793,-398,3532,1802,-512,7862,825,376,3407,112,508,-5076,2707,1637,3847,765,-4089,583,-1067,847,-2217,-4499,4008,4316,6122,1506,-4618,-3338,5739,3086,130,-4476,1476,3886,-3442,3898,2032,2183,-724,1546,-708,-4450,3921,-2998,26,1266,-2070,-3057,-2596,4188,-7182,4656,406,2679,-5416,-1928,364,1129,-7150,-2936,-2103,5459,-2167,2248,528,4399,1801,-5150,-6423,5934,3722,-5881,2001,8001,-761,984,-1520,1546,-3529,-3021,4940,-3222,417,-3563,3086,-2662,-1746,226,687,-3703,608,3484,-2664,236,63,1066,1300,6228,-3646,-707,-996,3589,3774,4361,991,-2008,-1263,2044,2122,-1792,6403,-3796,-4371,15,-11689,-1029,-506,1181,2857,845,3745,-1121,583,-1444,232,4869,-1179,2765,840,20,-2317,-4970,-4909,2125,-427,2765,-267,1330,607,1800,1801,-2477,-544,910,2140,-3072,1808,-1185,-2347,624,-2079,2125,357,-756,-604,892,-4198,5767,1617,-607,4885,-712,-4702,4835,-2963,-1614,-185,7885,1315,-154,-1031,-1859,-2701,5100,-662,8015,-5722,3311,2745,171,3757,-2770,-2159,1031,2752,-468,122,-2938,-2032,437,-3283,2350,-4059,2969,-1323,2697,-3079,5965,19,1443,3687,2445,-206,13358,-327,231,-3895,-5910,-1001,3460,-2063,4672,3678,516,-2731,-5195,1752,5557,8645,-6105,-628,-6631,3941,-4157,-5911,2367,-4000,177,1687,-4157,1136,796,-2970,-1302,2782,-1560,5471,8050,-3215,5632,-1059,-1440,-2158,1380,-961,713,2422,-2523,-1,4092,-4236,498,-1930,-1505,-1701,3133,-1200,676,-2442,-4021,11747,1086,4158,-4677,-1264,1627,2933,-2269,499,-4685,-615,1587,-1187,735,-7043,-3986,-1047,469,2313,2006,1119,2004,-1457,-797,1515,-3114,-4670,-1476,-4933,3720,-763,6109,3495,5437,-2172,4714,3539,-1338,5506,-2545,-2305,-1368,2370,1851,453,5742,-2579,-3707,1776,-32,-2661,7778,-3711,1290,2055,-1267,-1456,-3249,331,401,-642,-4136,633,-1385,996,153,-2205,2256,-715,569,3969,1387,346,-2596,6685,-5463,-2540,172,-1023,-302,4737,-125,-991,-413,-3882,2098,4858,2674,-2442,-3842,-4494,-420,-2448,2667,4584,2334,691,2905,-493,-3290,1106,6605,1322,-6132,758,-4376,-400,-634,2044,438,-4250,1567,2280,-2186,-4004,-755,534,-3580,1672,-1331,6142,-1234,-3041,-1348,5117,859,2972,1356,1838,2027,-1638,-7867,1224};


//#pragma DATA_SECTION(weight_4,".image")
const int16_t weight_4[512] = {842,7028,284,-888,-8425,-914,-7666,2190,-479,-1913,1914,-983,-820,5369,-2288,2647,4453,-2044,-1715,3641,3724,4036,4102,1374,1281,53,3166,2905,1077,-4472,970,-4646,3728,-1953,5106,1171,-2375,-4903,-1179,3711,-1543,-3161,-1544,-69,-2489,-6094,475,-210,3529,-502,-2224,151,1177,1742,-263,-135,-1140,-2692,-5222,-2238,3632,78,-3237,-2979,4187,1355,2743,1171,-1025,-5488,2411,-2848,4516,-4990,986,1441,4305,919,10049,-1884,-437,199,1067,-3362,678,-1027,-2318,690,3616,-2512,-2746,3443,1675,2734,202,-668,4313,-1311,1522,-5766,3042,-637,-4648,4909,4503,-1140,-2481,-846,7554,-1765,2118,1769,-5778,-94,2870,-894,-602,4433,-2369,5058,-3791,1774,-1735,-681,-3172,2377,-529,2147,3063,4083,-832,-622,-1561,-2854,-3306,-1215,2030,-441,-502,2654,-6245,828,1793,-6912,5258,1743,-2651,-2070,601,-2975,-741,-1833,-2695,-5730,-2108,151,-1818,-1051,2943,917,114,-663,2889,1815,2533,-4356,1108,4114,5060,36,29,722,-3734,6671,-2132,-4066,-306,-3448,-1664,-3784,-6704,-1540,285,-1377,148,3939,5929,1884,2148,-2156,821,942,4969,-1666,-614,4349,3483,-1273,-880,4771,-1464,-747,-231,-1892,-1079,2497,-1305,2836,-97,-1481,3553,575,-2009,-4084,4255,1695,5640,-3858,521,-3983,-2784,1609,-364,-1021,-2397,47,-3726,846,4033,-653,4617,-376,2634,-1250,1071,-5503,-3489,8410,1719,2716,-2905,3895,485,353,-5584,2961,1167,-5573,-1307,-2487,4081,-906,2283,1686,4632,297,-7626,-224,7759,-346,42,-1618,-1802,-5644,3658,1389,-1542,-348,2560,2026,-8675,3398,4532,2117,4560,-3012,-982,1296,-326,-869,3364,1628,3293,5901,-1159,-4169,-1404,4076,-2134,-3991,3830,-3400,1197,1415,210,-635,511,3276,2526,-486,-431,-7274,-2234,91,345,-2900,-2198,617,-1195,5740,631,-1972,-1778,-106,-2442,-3852,-788,-3499,6046,-1506,-226,-3070,3065,-1421,-3560,216,3146,497,1715,4182,103,6681,456,94,2615,3265,-3937,561,-93,-913,-9692,3155,-1993,157,-1539,2795,-2499,3055,-5924,242,509,-1525,3763,-785,2602,4274,-4600,-210,1333,-2805,-2965,-3258,-5470,895,-4089,-2240,-69,3053,-1256,-1252,1997,-7548,2398,547,2148,-3200,539,-1520,2368,-5923,1298,-3788,-778,3056,4814,2734,1471,2041,5838,5224,-512,870,-10670,2620,-269,2663,-353,-4034,-4711,2456,-2605,-4116,-5475,445,5228,2418,-2200,-1650,2651,4664,-1914,-12651,-1911,-7605,3127,-1000,550,4581,-947,-1480,1519,5841,3746,-2319,-3399,-257,211,-3777,731,-5551,-379,-3470,1895,-6362,-699,207,-113,556,-1569,4543,375,-1002,-2457,-73,908,-1794,2010,-3107,-2189,4881,961,3158,2964,-4034,-1401,-2068,1860,-3525,6139,-4169,1449,-1441,-5446,-270,2223,-2595,-3149,1382,-1532,4745,-1470,1612,5244,3180,-1167,-2368,-2063,1791,-772,4192,781,596,-3630,1368,1954,270,-53,2144,2452,-2156,-3066,-3665,-1632,751,-2404,-2563,5151,4821,3319,-4251,-1724,-7249,3432,-3557,2271,862,-500,7622,2827,-1756,6145,-1904};

//#pragma DATA_SECTION(weight_5,".image")
const int16_t weight_5[256] = {3377,4816,2214,932,1773,3716,-4347,4437,726,-217,-1044,1268,2399,4874,3542,3375,5718,-725,-194,-692,-233,6642,-4240,-47,3661,130,1605,-3292,2203,-1641,364,-454,-3586,-2441,1151,655,3538,515,2489,-4652,2533,-181,-506,-1205,1069,675,567,-6100,-428,1408,1493,39,-4221,4478,385,4702,-2918,-916,-382,-1691,267,-2296,-1661,-1248,2712,-124,7056,100,-2118,1628,1419,2738,2918,-4762,-391,3418,-3662,6267,347,4140,-3021,5652,-955,571,-421,-1522,5349,-6027,1977,3011,-1268,3739,2764,4734,-690,-813,-7733,-3017,202,-11933,750,3109,-2138,-797,-6855,-910,-2955,-3224,334,4943,672,370,186,-522,-4565,3129,3296,-1168,1815,-3908,-1074,-116,-961,-1359,223,390,1033,2906,2788,-335,1685,-4259,-1924,1604,-2294,-1552,-5112,2980,-3361,-26,7093,-1571,-1945,-5416,2366,4780,-1988,-1470,4071,1661,-2176,296,-1198,-630,-93,3346,-2885,-4550,-1585,-312,1059,2798,1210,-516,-4298,6178,-4151,5947,2898,-95,-485,-4044,794,1663,-123,-1374,-3699,-3420,2716,-6070,-715,-3229,-2726,-6689,-1959,-314,6253,3523,-1148,-2903,4023,87,-2153,-188,-2639,-3536,217,-1319,-1302,-2933,-848,625,4169,-374,4203,-1390,-1485,1329,-2985,-1125,-3648,3802,548,-3345,1836,3855,-1560,-4191,-1919,-5211,-2665,8015,-1261,4129,737,1369,1613,-1055,1947,-4410,-1214,1151,-17,-3531,-1075,-342,2577,266,-3368,3821,-5170,-6794,-4165,3877,-1308,-7792,-700,-636,-2641,2745,3649,1184,3807,-6743,-1240,-423};

//#pragma DATA_SECTION(weight_6,".image")
const int16_t weight_6[36][128] = {{-344,791,2000,2174,-676,-522,-842,1039,-1119,345,-2858,-2294,-1924,-859,2142,-575,2552,-2191,1570,2691,1648,472,156,-2195,-854,554,-560,-1326,764,-738,-703,-492,2581,-2088,-1140,-2521,201,-1253,-2892,-1731,1368,-1409,-1901,1884,1576,-1295,885,-637,-1659,-1882,683,1615,2885,2723,619,-2439,-851,47,-2823,2840,-1370,-1824,1492,-1059,2490,-423,2698,-848,769,2120,-2111,19,-1925,-2616,-2895,-2520,1082,2079,-697,-968,1977,-831,-1801,-1818,-1739,1087,-2046,2811,1521,-1983,1353,2452,-1345,1274,931,227,298,2367,-519,-2257,-1521,-471,951,2138,-2665,-2064,-2711,-1973,-2576,1770,-267,2356,-1409,-1240,834,-1951,386,-470,-436,350,-169,-2478,2788,-170,1162,1002,274,-2807,},{2795,-1290,2677,2864,1451,1939,-221,2171,2031,-960,1679,-2173,1411,2494,-2496,-2418,302,715,2361,-2495,-899,-9,2744,-949,1693,-2643,2482,607,-2058,186,486,-2287,-1295,2169,-366,-820,142,2438,-1243,2663,-506,2168,-2215,-2415,-1164,335,-202,-1309,-781,-1961,-2319,1656,-1015,-2091,1611,-1177,935,1006,-1641,-1483,197,1174,140,-1176,-745,2589,432,84,1022,-1461,698,-2891,987,1148,-1586,1831,1543,2090,1840,-2084,-2608,-974,-1682,593,-239,1225,2462,2610,-1210,-2432,551,594,-2454,-2532,2513,-1695,-2767,-697,1591,1435,200,2259,-2326,-1347,-1707,1637,804,-1693,129,-1979,1027,-1386,118,-1730,-672,-1245,-1725,710,-876,-111,-1203,614,-1947,2037,-1831,-334,-1531,981,},{401,-365,1346,2436,-2826,1573,997,1336,-676,507,-2177,1546,-1832,1916,-2884,-601,2016,-1072,-2264,1355,115,-207,-805,2076,1203,621,-668,-2728,2570,1519,-1873,-190,1526,-841,2868,-791,2894,1156,-1374,358,-478,-1926,-266,112,-1727,-870,-2276,-476,-2721,-2044,-2036,159,-1399,1482,-2824,-2183,-251,162,-970,-1639,-2201,-37,-2100,-2487,-1615,-1791,519,1874,1128,1312,2634,-440,-797,309,765,-1539,186,-1883,1796,-2800,1245,449,-783,-1329,2105,823,-640,-693,-26,-925,-473,-1486,129,-2502,-831,-485,-1758,748,398,1502,-1699,1068,2335,-2840,276,1513,1934,1669,571,-1785,1710,-2337,-234,234,2407,-1136,-1222,957,-2046,1583,1845,-133,1452,1744,-24,2603,-2225,1605,},{-1036,-2065,96,-2116,1568,789,338,76,-1900,2163,-2042,-1499,2346,-998,-553,-2607,-2029,-567,-1871,-269,2780,-467,533,1162,2545,-302,-2475,-2535,-2241,923,1779,1739,-1124,-145,662,-1015,293,725,-2243,1095,-410,-958,-1491,-1778,-2389,1447,-178,2105,-2389,-1945,798,-1814,2156,1948,-2856,1970,-1567,2186,518,1246,468,2299,252,-2276,2874,349,-948,636,-2104,462,353,-454,2433,-863,-158,1003,1619,-1231,2438,302,-2592,1215,-1779,-88,1359,-580,99,322,2675,-1726,345,-1848,304,-1550,-1116,2094,2339,2108,-775,421,-2316,1617,2588,-1013,172,-81,-2884,-1907,-2349,1525,-1826,868,-1285,-1546,-949,203,2801,-2337,1824,2802,-1431,-2011,1026,-1942,-934,707,-1018,2191,},{2882,-1112,2728,400,-1607,-1837,2631,-31,-1705,392,-625,-2105,-1278,2290,1107,2086,-1656,1717,-2835,899,2264,-142,-1228,-121,1221,-517,-1446,1217,2685,2549,788,134,-374,40,-2786,-1171,1831,537,1011,1634,-2345,-2453,890,316,2239,-2443,1944,2829,-585,1123,-2540,-11,-1510,1285,1432,-2428,918,-33,-2717,-2674,-226,297,326,-1586,-1884,2730,-1834,-1398,-2556,-933,-1472,2282,-1570,-2516,-66,-2309,2337,-629,-1876,202,-270,2581,-2478,1859,-385,-2146,-2557,644,908,2208,-2252,-1528,781,1323,-772,-701,1699,1923,-2551,897,782,2103,283,-299,1834,-1039,-1463,-1267,1422,1297,-1412,2104,777,-631,2084,-930,-579,971,-596,2404,2238,-2558,-1790,1333,400,1583,797,-2230,},{-595,-284,-1370,-929,-793,1050,-2722,-2802,2168,-1351,1325,1405,-1523,2485,-1540,-225,764,-535,867,-1161,153,480,450,74,508,2668,145,-2892,530,682,-2148,2507,1083,1376,1284,-1118,756,-1116,1339,139,-1950,599,-1091,-2416,405,1472,-2682,-679,2252,479,146,1207,-2323,-2304,1220,-728,2458,-553,-182,-1645,171,-627,-2477,936,2527,2568,1356,-2878,1211,-710,467,2470,-147,-155,-2083,-2387,-1380,-837,-1049,853,-728,-2424,914,-735,301,2048,-1269,1838,-808,2763,575,-1265,-297,-675,-964,-2733,1856,-1184,-291,1787,2313,-2576,2518,2082,-2415,-575,1847,-1743,-484,-671,651,-2461,632,-2541,-140,2791,1066,-90,273,-1280,2541,1821,-36,545,2300,-2573,1631,619,},{-1957,-846,-1049,-982,-24,1764,123,-953,2438,-2093,609,-2893,1572,1033,31,882,140,291,2499,-2349,583,-425,-1696,-1165,-2738,858,1065,867,1241,612,1167,2789,-474,-815,2295,1445,-665,-2119,914,-1982,2378,-965,1318,1183,-1222,-1149,-838,993,1206,-2412,-1301,2547,1192,-215,-1839,-658,-371,1167,196,-1277,-1388,-388,1830,1204,786,422,-2408,-1438,-1409,-2575,803,751,-2832,748,-1149,-2000,-1550,-978,2743,-2643,-18,-2372,-781,1219,2154,1688,-2108,-281,648,-1404,2556,2675,-1882,-251,-215,1563,-276,2857,-654,-1685,-1947,2527,-445,671,-1910,2184,1442,1540,927,-2108,-989,785,-1812,-1573,1387,-1680,2830,-621,1044,353,-1798,747,-1760,-2698,563,-1310,-1474,-1487,},{-2063,-161,1415,821,817,2886,201,-2382,2581,-1880,1157,1781,2313,1793,-2137,-1395,1630,2696,582,1051,-2095,1744,-1555,2663,-2704,-2120,536,-22,1081,-2379,769,2062,-1600,-656,2432,2316,2610,-231,2703,911,606,2600,2872,-888,-810,-2169,2363,-1110,-807,-1347,-1529,-419,2393,-419,-261,-1647,-2037,-586,-1993,2828,-1519,1876,1892,99,636,-297,-994,-331,158,-1286,-1847,-2060,2348,1392,82,313,-2249,-2734,-2877,-130,552,-1125,-1608,-232,230,-538,-435,2476,-1165,1938,1025,682,-308,756,2486,-686,-107,637,-2649,1016,1046,-2046,-2718,-1940,2076,1594,-1884,1943,-567,1200,-2433,-1540,-1396,905,795,-1312,-2096,-2845,-2762,2267,-1631,-2275,-2040,-666,-1650,1986,-1942,1054,},{2731,-2437,-2027,1687,-2047,-444,-2024,-2324,2278,-2455,230,987,-2695,187,-70,-834,2081,436,-550,-82,-600,-1344,2824,545,1934,-1091,-2135,1308,17,2890,-2637,1134,2405,-2099,-1399,2100,-2288,2620,-1233,-2495,1758,1915,-933,759,2820,199,645,1336,229,1042,-1490,-1841,-1792,1896,844,-994,-726,2740,565,-2151,-619,-2331,-82,-1334,665,759,-2439,1274,2094,-247,-1067,1210,2469,-384,2368,-278,-1414,1677,1887,-2431,627,1310,173,-1915,615,-1448,876,-356,-578,14,-218,-2839,-585,-1108,-1608,-1542,-400,339,-1853,2688,-768,-512,-630,1256,688,-1853,-775,-2495,-2163,-2620,-985,-461,2065,-531,-1088,1061,-1823,330,-1207,-2671,1343,-1151,-1145,-368,2081,447,1447,1483,},{1540,-619,-1581,-957,-679,2349,2456,578,11,-1515,556,32,628,47,554,-1796,-1200,-2456,1286,2340,2578,-1825,1644,2693,-678,-1075,-83,1969,1338,-2140,277,1756,-2417,-2756,1601,-1094,-214,-2507,464,-1984,1625,-1490,-620,-2181,-509,-197,-2619,1311,-2440,-2517,1089,307,1256,2317,2672,-2249,-1604,2405,2229,-549,-1920,111,449,-1632,-2838,1084,1566,-2871,2088,-2057,2305,2817,-1701,810,1886,496,1307,2797,480,899,1978,2889,1057,506,2690,-233,2030,737,966,1876,1661,1720,460,2494,2299,-2074,417,884,1109,-145,-2659,-2701,1647,-2725,22,-2803,-1026,-75,-888,2333,2799,2048,-2461,1298,-2454,-2106,2086,-2242,-836,-2559,-2171,-587,-1847,-2530,-503,-199,975,1319,},{-346,648,1129,-710,2389,-837,-2831,-247,-252,1008,-454,-737,-992,2463,-1342,1319,558,2441,1570,-476,1269,-802,946,761,-2027,-1447,2227,-1778,635,560,-2701,-533,90,-966,114,795,2430,863,2210,-964,-2295,2086,1322,-2811,603,2702,1128,2883,842,-1859,2115,2032,-960,39,-1852,-697,-1801,-335,852,-1708,-1310,2201,900,-1604,-1271,-2558,367,-1117,-1354,-1027,-2731,1268,2261,1480,-1982,1119,1323,-1263,1248,1072,-1007,2229,-2874,1642,358,-1601,-284,-2585,-1477,825,317,-2316,454,-2074,567,-1474,1875,1934,-1305,623,1027,-1400,-73,-739,-2645,364,-1554,-2474,-2643,-281,-56,1218,-2017,-61,2603,-2114,-1906,-2118,-2258,1977,-1931,2044,-1902,2241,2446,-2730,2740,633,},{-550,-2892,-970,-1099,-81,-1603,-2026,712,2020,-1164,1820,-84,-2101,-2472,-1749,-2701,1071,1738,268,1465,2133,-2342,1033,-1520,341,-515,-2131,208,493,997,1203,-2342,620,1126,-1510,1632,1084,2575,-728,-2666,2449,-1392,1957,-2584,-2796,1197,-472,2465,1469,2464,1101,1624,-1365,-1769,-2627,2201,-2797,567,-1607,2331,946,264,39,-2532,-2349,480,967,2656,-2430,976,2313,-2337,-1964,2441,888,-914,-131,-301,2718,-835,-1953,-1904,98,1875,-1885,-2118,-2313,-295,-1981,-1056,-546,-1615,167,2287,-451,-2667,1102,796,-1139,-2168,-2554,1120,1578,-182,-1728,2168,-2354,1096,-2273,-2702,-2674,1720,2849,983,-2064,-2491,2349,-401,-1824,-1881,510,-1434,1978,920,1654,220,639,1686,},{1197,751,2190,2283,-2148,-1507,1760,2574,-847,-1018,1185,-1214,-1827,1557,811,-626,2371,-2379,1142,-946,-1754,-135,-2431,1465,-774,-2571,-728,-1369,1021,2267,2736,2174,-2698,-1480,-1066,-2056,640,1816,1072,-765,-486,-755,2426,-56,-476,-634,-2636,2029,778,-2023,2166,-1497,-1078,-1904,-2712,-2131,153,2593,2694,2377,2322,2233,809,1804,414,-1606,-2266,-810,15,1877,-865,2237,2665,2292,718,-1776,1803,38,-2423,454,2664,-2359,-2180,-461,-1199,-1624,2360,2092,-1096,1594,-2521,-1665,1330,378,-1754,-2890,-2114,-2261,-2174,1292,824,-161,1412,1648,-1536,345,2516,909,2794,2854,942,1877,2206,413,-290,2265,-1629,352,-2507,1839,-845,-156,1710,-700,1016,-2696,79,-2348,},{2198,738,1264,-1479,-1358,-1655,-2544,-141,-605,-2606,2678,2739,-1781,1771,-658,-330,872,-2652,-2458,2547,1092,-2600,-1453,793,1098,-1185,1885,341,-1837,362,-1244,1704,2505,1328,1047,-493,2010,2410,1017,2035,-1701,2659,2122,-1721,1029,1294,-1239,-1622,-1133,2607,-1754,1812,1855,-1148,-2212,-673,-263,-1672,-2192,-823,-1877,2280,-1155,-2592,1116,-2871,-135,-1081,2362,-2295,2119,-100,-1144,-2730,-136,1782,1916,1041,1450,-2351,1462,2241,1289,1161,-1528,-158,1241,2767,1300,-623,-2223,-2842,2126,-1923,-1358,-2150,-1541,-1344,1843,619,2242,-1683,2214,-1470,1160,-7,2267,-1524,-1197,2614,1967,2076,-454,-1540,-904,-328,2159,-493,1145,-291,1203,-980,609,1565,-2759,-1492,2012,2262,},{493,-715,1820,-2509,-150,2389,1318,2565,69,-993,-1636,-1089,790,-2095,-2626,-860,2514,-428,-2852,-216,2780,-198,-605,1445,-1517,1146,-1849,1800,1211,329,-1807,-496,2216,343,-2519,-2857,-403,-444,1137,-1879,-1493,-511,-631,1865,-2685,-435,-2185,86,-595,-598,-863,1331,900,1717,-786,2462,-1614,949,-626,-432,1955,1512,-2205,-2006,2699,2452,2438,2677,-578,-2666,1852,-1425,-248,-1691,-1192,2775,298,1996,-753,1454,2428,544,-638,-833,-2311,1862,2288,206,2275,-1645,-230,1884,-265,-1396,-1536,-130,2030,-1527,1298,-2109,-913,-611,-1919,-704,-888,1758,811,1046,639,-1674,-1218,-1224,-1095,16,2488,-33,-1834,-1624,270,-2326,-1256,-186,-701,1544,-2620,898,-1133,755,},{-994,-1660,1827,-3,-1211,-977,2299,348,-2386,2449,1068,-1846,-2643,2731,2532,-1846,-2292,1662,-1728,-1192,-1086,-264,-1082,-1616,963,2063,-1865,-464,-701,-916,-1146,-207,1560,-94,-1085,724,2152,1142,-2717,2587,-2303,1118,822,-1087,-2678,-945,2662,815,-1625,2259,-1969,2018,-854,-1120,-1884,1502,-1226,2746,1962,1122,1554,-2668,2302,-1689,1870,1763,615,-201,2310,-1855,-2348,-2659,1096,-476,-721,-381,296,1907,-64,626,-1691,-1667,-2018,1305,-2316,380,723,-1831,-1724,2030,377,-1646,-1749,2227,-1667,1565,478,1414,2866,-692,930,413,-521,876,2647,-2176,-1417,1884,-1766,1752,-1320,1320,-120,-64,-2168,769,-2617,2823,-1199,1027,-2336,358,1678,2577,-1825,-568,-2459,1135,},{-1786,-1004,-2012,-2108,-258,-1399,2734,-1718,2461,22,-2716,1350,2506,1957,1701,262,-1114,-1225,-747,-988,344,25,20,114,1627,2185,2570,6,-665,-1450,-1409,-658,2670,-692,946,-2463,-1604,-2392,-1038,2466,1005,1943,-2435,-2259,64,-138,-612,2670,-987,-1062,-1941,2570,-1213,-2575,-2890,-862,-1608,990,-2878,-1510,2118,415,-1422,36,-2277,1484,179,-1387,923,-2519,-1372,-414,876,1473,675,2543,1443,-1719,-62,374,-1669,2006,984,1129,742,1565,-946,1158,-1391,-1656,1331,-937,1179,-1830,1881,830,-402,1372,1310,930,2266,1402,-1578,-857,-2387,1968,190,-192,2078,624,1829,-287,2261,1701,-876,-1395,359,1274,289,-1662,-1939,724,356,1296,-1783,783,1167,-1207,},{-1481,2786,793,1187,-1024,149,-1387,-2635,-2867,500,1237,1606,2260,34,170,2241,-1187,175,-748,-1378,-163,1555,718,-2113,-2377,2089,24,-636,-2265,344,-769,2889,2025,-2816,-2579,-1620,2067,191,-724,-931,-2443,-903,5,-163,528,314,7,-709,-2205,768,50,1837,2257,-489,-1321,1184,2217,829,1776,1403,-475,-2688,-2472,282,2401,1029,-2677,2601,1659,80,-880,860,-2759,44,2245,2429,309,-1202,-1979,-1132,-2123,-576,-2648,436,-535,2331,-556,-2629,1988,1888,-1942,1681,-2439,-2379,-738,-1606,1836,-2355,-2475,572,-99,2791,1361,-1192,2569,400,-2774,962,1939,-903,2802,1390,2205,545,-2245,572,788,-93,-829,-845,1540,-1549,2002,860,529,-966,-2405,-1998,},{-2709,-1633,-2559,1307,-2562,-1753,-2566,2094,996,219,-934,-82,2451,738,1506,478,-934,-695,-1700,1669,-2034,-857,-1001,1395,-266,2134,1909,2070,-892,-1921,457,1192,-1620,-2567,1194,2193,394,793,-956,-2859,-1986,-2453,-2843,-1746,-1910,-88,1338,673,1636,1437,230,1550,1456,-2874,2054,1365,201,-1701,-1323,940,-1306,-1576,-2323,995,405,2201,116,1936,1757,-2607,1440,-1413,1851,-1036,-8,2828,-2445,1200,2796,-2145,575,-928,1288,-1627,1320,1043,967,2407,-1956,2817,2835,2721,-1139,2089,906,2891,736,-2596,-225,982,1133,-2427,-1733,1128,-978,2217,1983,2542,-2812,393,-2474,-1606,-1819,2443,-484,-779,-1425,-2610,1033,50,-2761,-1096,810,-814,1971,2554,2716,-2533,},{-1829,1865,-273,-2315,-394,-986,-1954,1614,-1718,-37,-107,-1093,417,2496,1339,-1732,1038,397,-891,-429,-2790,-1371,-1966,1604,941,-2564,-1651,-936,221,-1240,-309,-1652,-1990,-1521,-917,-412,870,-1723,2559,1461,2720,1867,-1856,755,1840,2342,889,-2747,2041,2542,1558,-1478,616,-1346,1287,-1679,-710,-741,753,1334,-951,1275,-1370,-29,-2269,1077,2342,-2325,1073,2542,-870,1,-692,-2560,1025,-2113,1379,876,2856,2354,-147,-198,-1549,-156,2726,-569,-2186,779,1449,-2159,1589,-2048,1684,2443,-1904,-2607,-585,-1808,1586,-1028,1942,2882,-213,-2308,1127,2057,2444,-2530,-2280,-1606,-599,903,2866,-483,-2430,-379,-2855,1803,-2596,-2317,-2401,2351,-1542,488,-1202,1,-146,332,},{898,344,-2756,-729,1132,1293,-1326,-2365,-212,1551,917,2498,-458,-2787,1677,319,-2818,2487,138,-2327,-121,-945,-1925,2179,1162,-1202,-1971,-347,-1266,-1978,-2664,-2837,-1525,1698,1397,-195,-207,2387,580,-1770,1268,969,2091,507,1397,742,762,-1203,2541,178,87,2236,-734,611,1194,90,837,-306,1754,-1745,2599,1986,2589,-726,-1152,78,373,1730,-1625,-211,2438,-654,1945,-2686,952,-2529,1948,1569,2292,-128,-2791,1479,-503,-511,393,1499,-1014,-1510,271,682,2377,1506,-549,-2046,-784,2821,-2558,-634,-1293,143,684,348,305,-2165,495,595,2515,-2363,-103,1712,-2384,-2686,-1953,959,2267,1781,-1779,2521,-2249,-1323,-2615,-1412,-139,-2239,-2496,1594,1851,2135,},{-397,692,-287,-715,743,2114,736,2595,-1567,1747,-575,828,-191,-879,518,-288,-1390,1595,2742,1337,-673,2174,-1539,-845,1356,1785,-302,531,1476,-112,93,-1336,-468,2500,-780,2593,224,1453,1342,-2030,2818,2816,2302,-1599,-1253,-2782,1931,2126,-428,-2386,2315,-2834,-947,-1065,2649,965,1634,-1568,402,153,356,660,1404,-2346,-2204,-765,-973,11,-2705,2389,-676,1123,-2730,-101,2554,2181,-197,-1817,1959,1983,-894,2780,1514,2326,-1995,-2437,1426,-553,1607,-2585,-2138,-1726,-2037,2219,1866,-258,876,225,1936,51,-2792,341,-1454,-534,-745,385,319,-556,-421,-2039,-2708,1227,268,389,-1586,-885,116,97,62,-124,2891,418,567,2352,2455,2365,-1971,1823,},{2127,-715,1123,-2263,-554,724,429,1666,-1719,-1247,969,-2766,-1461,2335,2843,315,192,2416,1131,-624,640,669,-434,119,-1724,335,-493,-1866,0,-21,108,1020,-861,-79,1206,2136,1136,2265,-1563,-1779,-1724,1741,-529,2616,-1312,-1607,-2844,-1033,-869,2617,-1379,1141,2705,977,-110,-604,1700,102,1150,2449,2575,-373,2692,2723,-623,647,-2565,-1728,119,-2131,1111,712,807,130,2551,-1102,2729,542,-1339,-109,-2235,-295,-635,-1415,1182,2037,2871,825,712,-464,-1772,542,937,-220,-672,-1702,-905,122,-1184,-1785,1146,1143,-2330,1682,-2228,-1305,2226,-700,-2105,-958,2681,-2085,-2010,-1749,2054,1366,-2263,1,497,666,342,2087,1349,-267,1235,1024,333,2822,},{-1089,1775,-2707,-1564,2144,-1151,1786,1708,2423,1762,-594,14,71,204,2541,-1196,2830,2878,639,-2001,1676,-135,1898,-488,2309,1719,-1277,2351,-1353,-1904,-2786,330,-2635,2203,-525,2274,2312,-797,-1235,-2006,-141,-2802,1312,-802,1767,1132,-1820,2320,1832,-2262,-941,2013,-1954,-2235,-424,2313,1571,-2056,1000,-583,-284,-147,-1454,1175,-2059,-1186,-2094,1081,1273,2443,-1645,2616,682,-2518,1739,-1122,99,-1182,-1038,1766,374,2115,-2663,327,1978,946,-214,1151,1826,-2784,-1798,-798,-2491,-2472,2570,399,267,2105,1169,2160,2149,1794,222,2503,2280,2151,1573,-1838,-2082,-2892,517,-2357,-279,1249,1973,1465,1501,1620,1636,1032,-759,2140,865,911,-2194,984,-2489,-382,},{1489,2377,1192,2242,1334,1147,-1057,430,-754,1312,-1003,1361,2401,-1582,1102,-2392,-1351,1904,-2344,-2032,-1578,1807,18,432,735,1027,-1251,1510,-378,-2606,-2577,-2588,2528,1351,2392,-2652,32,1535,1389,1849,1568,1543,63,-1773,-2511,-2771,1786,-1127,1455,-2858,2339,801,-290,-442,-602,-1194,-2513,629,-2125,-1121,-183,-573,-262,1757,646,-1289,2486,1854,2509,-1831,-2235,-2391,-75,699,1276,-563,1570,1472,-511,1013,605,191,2216,-2268,2676,846,-1915,2414,-1989,2145,-1623,-851,-521,1509,1087,-1516,1218,-1157,27,411,1970,-878,705,2826,-1538,-1397,2861,1669,-1832,900,-1210,-1467,-1491,401,2377,263,-160,1383,-530,1860,1311,-2107,161,2341,-1207,-330,-2857,-1207,},{-381,25,-1726,-533,2840,-2556,1710,-1014,-1897,10,1327,-1005,1581,-1047,2294,947,-1553,-1688,-2100,1100,-1396,-2026,2830,-2186,2563,2396,-2047,293,2762,-1039,-1022,202,-2192,-2138,1809,-1316,2657,676,505,-1840,1700,77,1234,429,-2738,-836,565,-303,89,-2351,-799,1967,-104,-45,440,-762,-1655,1536,-2342,-544,1270,2565,441,-1972,-1487,-634,-1039,2766,1183,-964,-1600,1983,2010,-1244,-2826,2398,-1861,1798,-1122,2753,2034,179,135,1711,340,2830,-1227,434,857,847,927,-1680,-403,-1902,-768,2236,1110,-408,-1804,650,2314,1327,-2218,-1829,2656,-276,2588,2825,-1597,1136,1726,-299,1092,2853,-79,471,1760,1220,364,318,980,1730,2441,-1559,-1292,-2260,-393,-102,},{-339,562,-1128,-978,-1310,241,-1972,-988,-2754,-1084,-1779,516,-190,-2828,2400,-563,-975,-65,-1719,2607,1856,1979,-1815,-1602,816,-2167,-1439,12,-79,927,-434,-1377,1175,1551,-922,472,1149,-1809,-618,-407,-2685,-2671,2602,547,-1830,-554,64,-1401,-225,-2700,-2134,1425,-1858,2620,-1075,716,1898,-1151,1088,-585,1946,518,-756,1045,-2734,2715,-2052,-1794,-1865,-581,599,1733,-720,-821,1728,-2137,-2137,-883,2660,536,-719,-2173,-2420,-682,2528,-1632,1485,78,2035,1920,-2693,-1280,-960,1854,1659,-852,-2778,781,-1966,-2882,2116,2523,2880,2516,-1820,-2325,22,-847,-2394,512,2255,-1725,-521,2452,-2233,1466,-2657,-1170,-2281,-2205,-1631,2140,2639,-820,-842,-177,-1756,-4,},{342,-921,-1513,1450,-2524,246,-2866,2545,265,2296,849,244,-2731,-2447,-760,849,11,21,-2218,-58,812,-40,-2816,1186,233,2253,1498,367,1140,909,-798,2485,-2372,2558,-241,1829,816,-1108,-2550,-1160,-550,884,-1515,-2625,-1220,-1563,-887,569,-766,2665,-1387,-2675,-491,-503,-1832,2050,-81,667,-885,-1159,370,-553,-1856,-1077,2312,-1460,-270,-2470,1227,-521,-1713,27,-497,-1986,303,-2479,2213,-1601,-98,-1054,-1881,2,-913,-1738,2365,-2498,-1734,-2773,46,815,-2144,1732,520,2197,-2737,883,1974,-442,977,-804,1426,-392,-503,-2696,2289,197,2044,-355,291,1434,89,-1313,-2616,521,2147,2805,-2710,-2779,-349,832,-2813,-1987,-1086,-2036,-2677,-1098,-2604,-1721,},{-2553,-720,-145,2501,1877,15,-1600,-717,2484,1062,1572,2694,-769,-1894,791,875,1424,1239,-1574,-1654,-2255,-325,1506,-1053,-2115,-158,-2848,-1637,-2124,-1765,755,818,2585,-851,-2289,1934,-530,-2335,-2011,232,-855,-2498,-981,-1242,1236,317,-2014,-1871,147,-97,1390,1709,1270,-991,-628,-1311,2339,932,1452,2579,-2775,374,200,-202,-1367,918,-1526,2841,-86,663,2300,533,1687,-821,1737,171,2394,-2457,-14,1826,1230,1711,553,2271,2268,-2256,615,-1326,1420,-1750,-2476,-364,-557,-1679,673,244,2178,-1853,-907,601,36,2139,1038,9,-2247,-1608,1750,-2207,-2033,-1848,1799,-1329,878,-659,414,-2414,-861,-2775,-1988,2233,-1452,1940,2282,-375,-2328,-391,-1598,-2041,},{1618,-2126,-1139,407,-398,2418,-733,1786,2407,-2653,-1301,-2290,2687,-1234,-735,1525,1757,-1862,-317,-859,-464,-2719,1138,-1937,216,-2185,-2433,1694,2276,-1690,-1971,-2293,2635,1373,-2285,937,-2459,1855,-808,862,-1810,334,2803,-1731,-1599,-974,-1428,-367,280,-2635,-1093,2077,-1713,633,1214,668,2471,2319,90,-2610,-534,-2484,-2141,-310,699,-2665,-575,879,24,810,-1727,-2449,-2138,1984,-993,-824,157,1237,-2081,2400,-473,-1823,-935,1895,-552,-807,-2448,-2241,477,840,-940,2074,212,-2141,1723,-1562,-2545,-1096,-778,-2707,2115,1314,1491,-1647,-932,-1100,-1125,-2226,-47,-182,2521,-2774,2339,-197,2739,1795,1594,-1698,2374,1091,21,2192,-2825,906,1695,-2737,-1290,-290,},{1194,338,-2237,2823,1144,-788,-758,1669,-1679,-2296,1735,-516,1095,-1269,164,1877,2542,2260,-946,-439,-162,-1865,-2249,854,1016,1862,-1439,-1865,-1354,-1830,153,729,-1663,-655,-205,-142,1457,1394,2867,-1147,2824,-2404,93,-2659,-1402,-1995,1730,996,-1873,2829,1927,518,2666,-2188,-1692,-2477,2725,-1402,-1114,-2593,573,2173,1299,-1794,-915,2521,2438,-426,-26,2505,588,-2556,2208,-1936,106,-1970,76,2527,977,-1914,271,1408,194,-289,2620,1818,2264,2811,-2053,-441,-2539,-2811,1325,-226,1496,1766,1329,319,-1919,1618,-2857,2724,-2327,-235,2142,-2125,122,-606,216,-2618,695,1628,-1247,374,446,-1306,543,-309,2307,-403,427,-2549,1363,16,2456,793,2094,-1578,},{2393,-1701,587,-2600,-1495,59,2602,2609,2396,-2783,-91,-1229,-920,1168,-225,-140,1946,2171,-2648,2735,-878,-1451,670,1702,-964,-1393,-1114,1145,2074,2340,-773,-272,-2002,-224,863,-969,2164,2361,1975,888,-2468,781,-2187,607,-1954,1588,-1006,704,-2822,-1810,1315,-1275,-1528,-694,-2769,-2495,-1569,822,-1418,2891,-2214,-2013,-1132,1101,-1086,-828,224,1506,910,1026,-73,1604,2723,2678,988,-1616,-1380,-2372,1281,1655,149,1766,115,-1153,1393,2154,1581,178,-357,2359,1513,530,2524,-2723,1126,-2759,-1873,-1475,1631,-1587,639,-2807,198,-333,-1163,-464,1845,-2522,-960,2400,717,-1286,1075,-1613,-2635,-849,2016,1281,1358,196,1247,-2856,239,1079,2059,236,525,-1262,},{879,2225,2718,-1397,1084,726,-1404,-1412,-213,-1551,1210,-2052,2051,-1684,987,-2827,-2102,-7,-740,2736,398,754,605,1056,1068,1807,403,2823,-1621,2360,-2157,-2264,-1710,-541,2386,-2085,-2438,46,-755,2802,1932,-1391,671,-1840,1094,347,-1063,913,1336,1534,-78,-2855,2163,1596,1665,1467,2850,1583,-2618,406,-1058,2749,-1561,-1614,-1329,-1234,2395,2600,-637,434,1276,1501,978,-412,-1905,2615,1540,2039,1347,2260,2699,1774,395,-1330,-266,-1355,879,-2681,-1697,623,-2047,-500,-2116,-186,917,-2843,-1432,-996,-1898,481,-2372,2289,-2645,-80,2558,-408,1948,298,-1727,-554,-324,-283,1348,2631,1354,905,126,-588,2424,1919,1125,2472,-1020,142,-1964,-1984,776,2475,},{-1964,-1648,2269,-883,1770,-1009,96,1407,2145,-744,616,-2626,1792,2514,-2039,1202,-62,-701,-2167,-1211,-895,367,1868,-311,-2874,1985,263,-1858,-2134,-843,-2508,-1429,1201,722,-608,2348,-1644,911,-2622,2704,99,-1780,2840,2412,-641,-2726,275,2576,883,521,-658,285,-693,-763,2671,54,-201,-1385,-1240,2497,1718,2690,-2094,-1312,-1617,-1001,-2638,923,-156,477,381,399,-95,-2528,-1931,1159,1208,-2179,-621,2394,-238,-299,-928,2050,2206,-2370,2302,-1424,985,-175,-1692,-2862,-1679,2493,1478,389,-2867,634,-122,-8,-1761,1858,1009,1001,409,-2568,-2170,-568,-490,27,1403,-1892,-900,-1883,662,-2128,-2777,364,-409,-2257,-1091,-1929,-1746,105,1770,-2496,2535,-1013,},{-1098,-1282,-627,1582,-2733,353,-2513,900,615,-2853,284,281,-856,1954,2261,427,974,-1173,-972,-71,-2125,2161,-2612,2757,1567,1767,96,1810,-1907,1477,2209,2365,2510,184,-246,-1531,-499,-2593,-805,2097,-437,-960,-1095,-849,1361,-2433,4,1305,752,1304,-1080,-94,-1169,1325,-820,605,-904,2659,-1601,668,-1846,-729,-2821,-766,2866,-2363,929,-1083,1634,-666,-2786,-1499,-2038,-343,1967,509,-72,655,1709,-340,1708,-1079,19,-839,437,-231,-1189,-926,-2646,2420,-1032,1465,1497,-2303,1057,34,202,1082,-1466,135,-1624,535,1588,-656,-1218,2706,-2159,-494,-312,1033,2563,-1419,921,-2417,-2585,1229,851,1066,2643,-2173,559,-1453,225,1617,224,2215,-1506,1562,},{2777,-1430,-2714,986,-2371,-905,-1002,-464,1138,-2056,-35,-2425,-1684,2661,-890,-1188,2643,1539,-646,1149,836,-987,236,2411,-712,1502,1101,-2669,2574,-2504,163,-842,2463,2824,-2198,2163,-1272,-2620,-957,709,2350,-757,445,-706,-1221,-2467,-2676,2445,-136,2207,2812,-1197,-482,1387,2071,-1746,-762,2822,1124,2235,350,2867,230,1116,-1463,-921,-770,-1172,1962,1654,439,2448,1664,-285,1548,779,2661,-2196,-858,1114,-2579,-1297,1184,1947,-482,-106,293,2861,2665,1975,-1375,1089,-312,-215,235,1816,-1466,-1758,541,2647,80,-963,-2406,2882,425,1043,1777,-1198,-2819,2317,2428,1246,-2435,214,-407,1361,-2806,2665,-1149,-848,-1456,2462,2027,-2837,1795,-2823,-2589,2269}};


const int16_t bias_1[2] = {2258,-324,-3427,1839,};
const int16_t bias_2[4] = {1168,-231,-919,-1484,718,-15,-2009,1255,};


//#pragma DATA_SECTION(bias_3,".image")
const int16_t bias_3[512] = {3276,3276,3276,3276,3276,3276,3276,3276,3276,3276,3276,3276,3276,3276,3276,3276,3276,3276,3276,3276,3276,3276,3276,3276,3276,3276,3276,3276,3276,3276,3276,3276,3276,3276,3276,3276,3276,3276,3276,3276,3276,3276,3276,3276,3276,3276,3276,3276,3276,3276,3276,3276,3276,3276,3276,3276,3276,3276,3276,3276,3276,3276,3276,3276,3276,3276,3276,3276,3276,3276,3276,3276,3276,3276,3276,3276,3276,3276,3276,3276,3276,3276,3276,3276,3276,3276,3276,3276,3276,3276,3276,3276,3276,3276,3276,3276,3276,3276,3276,3276,3276,3276,3276,3276,3276,3276,3276,3276,3276,3276,3276,3276,3276,3276,3276,3276,3276,3276,3276,3276,3276,3276,3276,3276,3276,3276,3276,3276,3276,3276,3276,3276,3276,3276,3276,3276,3276,3276,3276,3276,3276,3276,3276,3276,3276,3276,3276,3276,3276,3276,3276,3276,3276,3276,3276,3276,3276,3276,3276,3276,3276,3276,3276,3276,3276,3276,3276,3276,3276,3276,3276,3276,3276,3276,3276,3276,3276,3276,3276,3276,3276,3276,3276,3276,3276,3276,3276,3276,3276,3276,3276,3276,3276,3276,3276,3276,3276,3276,3276,3276,3276,3276,3276,3276,3276,3276,3276,3276,3276,3276,3276,3276,3276,3276,3276,3276,3276,3276,3276,3276,3276,3276,3276,3276,3276,3276,3276,3276,3276,3276,3276,3276,3276,3276,3276,3276,3276,3276,3276,3276,3276,3276,3276,3276,3276,3276,3276,3276,3276,3276,3276,3276,3276,3276,3276,3276,3276,3276,3276,3276,3276,3276,3276,3276,3276,3276,3276,3276,3276,3276,3276,3276,3276,3276,3276,3276,3276,3276,3276,3276,3276,3276,3276,3276,3276,3276,3276,3276,3276,3276,3276,3276,3276,3276,3276,3276,3276,3276,3276,3276,3276,3276,3276,3276,3276,3276,3276,3276,3276,3276,3276,3276,3276,3276,3276,3276,3276,3276,3276,3276,3276,3276,3276,3276,3276,3276,3276,3276,3276,3276,3276,3276,3276,3276,3276,3276,3276,3276,3276,3276,3276,3276,3276,3276,3276,3276,3276,3276,3276,3276,3276,3276,3276,3276,3276,3276,3276,3276,3276,3276,3276,3276,3276,3276,3276,3276,3276,3276,3276,3276,3276,3276,3276,3276,3276,3276,3276,3276,3276,3276,3276,3276,3276,3276,3276,3276,3276,3276,3276,3276,3276,3276,3276,3276,3276,3276,3276,3276,3276,3276,3276,3276,3276,3276,3276,3276,3276,3276,3276,3276,3276,3276,3276,3276,3276,3276,3276,3276,3276,3276,3276,3276,3276,3276,3276,3276,3276,3276,3276,3276,3276,3276,3276,3276,3276,3276,3276,3276,3276,3276,3276,3276,3276,3276,3276,3276,3276,3276,3276,3276,3276,3276,3276,3276,3276,3276,3276,3276,3276,3276,3276,3276,3276,3276,3276,3276,3276,3276,3276,3276,3276,3276,3276,3276,3276,3276,3276,3276,3276,3276,3276,3276,3276,3276,3276,3276,3276,3276,3276,3276,3276,3276,3276,3276,3276,3276,3276,3276,3276,3276,3276,3276,3276,3276,3276,3276,3276,3276,3276,3276,3276,3276};

const int16_t bias_4[256] = {3276,3276,3276,3276,3276,3276,3276,3276,3276,3276,3276,3276,3276,3276,3276,3276,3276,3276,3276,3276,3276,3276,3276,3276,3276,3276,3276,3276,3276,3276,3276,3276,3276,3276,3276,3276,3276,3276,3276,3276,3276,3276,3276,3276,3276,3276,3276,3276,3276,3276,3276,3276,3276,3276,3276,3276,3276,3276,3276,3276,3276,3276,3276,3276,3276,3276,3276,3276,3276,3276,3276,3276,3276,3276,3276,3276,3276,3276,3276,3276,3276,3276,3276,3276,3276,3276,3276,3276,3276,3276,3276,3276,3276,3276,3276,3276,3276,3276,3276,3276,3276,3276,3276,3276,3276,3276,3276,3276,3276,3276,3276,3276,3276,3276,3276,3276,3276,3276,3276,3276,3276,3276,3276,3276,3276,3276,3276,3276,3276,3276,3276,3276,3276,3276,3276,3276,3276,3276,3276,3276,3276,3276,3276,3276,3276,3276,3276,3276,3276,3276,3276,3276,3276,3276,3276,3276,3276,3276,3276,3276,3276,3276,3276,3276,3276,3276,3276,3276,3276,3276,3276,3276,3276,3276,3276,3276,3276,3276,3276,3276,3276,3276,3276,3276,3276,3276,3276,3276,3276,3276,3276,3276,3276,3276,3276,3276,3276,3276,3276,3276,3276,3276,3276,3276,3276,3276,3276,3276,3276,3276,3276,3276,3276,3276,3276,3276,3276,3276,3276,3276,3276,3276,3276,3276,3276,3276,3276,3276,3276,3276,3276,3276,3276,3276,3276,3276,3276,3276,3276,3276,3276,3276,3276,3276,3276,3276,3276,3276,3276,3276,3276,3276,3276,3276,3276,3276};

const int16_t bias_5[128] = {3276,3276,3276,3276,3276,3276,3276,3276,3276,3276,3276,3276,3276,3276,3276,3276,3276,3276,3276,3276,3276,3276,3276,3276,3276,3276,3276,3276,3276,3276,3276,3276,3276,3276,3276,3276,3276,3276,3276,3276,3276,3276,3276,3276,3276,3276,3276,3276,3276,3276,3276,3276,3276,3276,3276,3276,3276,3276,3276,3276,3276,3276,3276,3276,3276,3276,3276,3276,3276,3276,3276,3276,3276,3276,3276,3276,3276,3276,3276,3276,3276,3276,3276,3276,3276,3276,3276,3276,3276,3276,3276,3276,3276,3276,3276,3276,3276,3276,3276,3276,3276,3276,3276,3276,3276,3276,3276,3276,3276,3276,3276,3276,3276,3276,3276,3276,3276,3276,3276,3276,3276,3276,3276,3276,3276,3276,3276,3276};

const int16_t bias_6[36] = {-2244,574,2098,-976,-1084,1506,-1320,-1675,-2118,40,-1880,1895,1942,-611,-1360,-319,-1946,-502,-2094,-2824,-1494,1512,1425,1877,2183,-1377,1844,516,2699,2017,2357,-1357,-1827,1685,1080,-1679};


//#pragma DATA_SECTION(f_input,".image")
const int16_t f_input[1][54][54]= {{{0,0,0,0,0,0,0,-12,-12,-10,-10,-10,-12,-8,9,42,7,27,5,20,16,22,39,70,82,30,21,12,13,23,33,121,113,107,82,71,58,67,95,121,135,135,103,82,79,91,90,85,92,92,109,144,92,60,},{45,31,4,-6,-9,-5,0,-10,-10,0,-5,-6,-5,-5,-8,-4,-8,-10,0,0,0,0,0,0,0,-12,-11,-11,-8,-10,-11,-6,22,58,13,24,19,21,37,47,82,143,166,59,46,34,13,52,85,191,134,108,74,80,},{104,133,167,193,208,218,194,175,155,130,105,96,121,177,201,182,113,103,69,45,19,-3,-6,-5,-2,-9,-9,1,-4,-2,-4,0,-7,-3,-8,-9,0,0,0,0,0,0,0,-12,-11,-12,-9,-12,-11,-8,21,44,2,7,},{14,6,30,34,65,117,135,37,28,28,8,50,79,163,92,58,22,33,75,124,165,196,206,211,187,162,137,99,73,52,58,139,168,125,73,78,48,34,12,-5,-2,-8,-5,-10,-7,-4,-5,-2,-7,-3,-9,-5,-11,-10,},{0,0,0,0,0,0,0,-12,-11,-11,-10,-11,-11,-10,20,30,-6,-2,6,-2,16,14,36,71,83,14,8,19,5,47,46,131,63,40,41,44,80,124,166,198,199,188,153,121,98,67,52,33,12,89,113,61,32,45,},{23,20,3,-3,0,-9,-4,-10,-5,-9,-6,-4,-8,-8,-11,-8,-10,-10,0,0,0,0,0,0,0,-12,-11,-10,-11,-11,-12,-12,10,9,-10,-6,-3,-9,-1,-6,2,18,31,2,1,8,-3,51,2,66,37,19,44,32,},{80,112,151,172,157,127,85,52,34,22,25,34,49,56,50,9,2,11,-1,0,-4,-4,-4,-10,-5,-9,-7,-11,-7,-9,-7,-10,-10,-10,-9,-10,0,0,0,0,0,0,0,-11,-11,-10,-12,-11,-11,-12,-1,-6,-10,-9,},{-9,-10,-9,-11,-6,-4,1,-7,1,-1,-9,69,10,48,51,31,56,50,80,109,138,148,119,76,37,20,8,9,13,17,45,47,22,5,0,-3,-8,-10,-8,-9,-10,-10,-8,-10,-10,-12,-9,-11,-9,-10,-9,-9,-10,-10,},{0,0,0,0,0,0,0,-10,-12,-11,-12,-11,-11,-12,-8,-11,-10,-11,-10,-10,-11,-10,-7,-8,-6,-11,-5,-8,-11,71,17,58,97,92,155,169,175,172,168,153,109,57,20,4,12,30,32,6,15,30,14,-4,-6,-10,},{-9,-11,-10,-10,-11,-11,-10,-11,-11,-11,-11,-10,-11,-11,-10,-8,-11,-10,0,0,0,0,0,0,0,-11,-12,-12,-12,-11,-11,-12,-10,-11,-12,-10,-10,-10,-12,-11,-11,-10,-7,-10,-10,-11,-12,43,6,23,88,119,186,197,},{212,198,190,159,107,72,45,32,32,49,47,31,6,12,6,-9,-10,-12,-9,-11,-11,-11,-10,-10,-10,-11,-11,-11,-11,-10,-11,-11,-11,-10,-12,-11,0,0,0,0,0,0,0,-11,-12,-12,-12,-11,-12,-12,-11,-12,-12,-10,},{-10,-11,-11,-11,-11,-11,-12,-11,-12,-11,-12,13,-6,4,36,66,106,115,137,140,141,125,74,55,33,28,31,40,40,27,14,1,0,-11,-9,-11,-10,-12,-11,-11,-11,-10,-10,-10,-12,-12,-12,-10,-12,-12,-11,-11,-11,-12,},{0,0,0,0,0,0,0,-12,-12,-12,-11,-12,-12,-12,-12,-11,-11,-10,-11,-12,-11,-11,-11,-12,-12,-11,-12,-11,-12,-2,-9,-2,0,13,23,18,32,48,64,64,33,19,3,-1,3,12,13,8,6,3,-4,-10,-9,-11,},{-9,-12,-10,-11,-11,-11,-11,-10,-11,-12,-12,-11,-12,-12,-11,-12,-11,-12,0,0,0,0,0,0,0,-11,-11,-12,-11,-12,-12,-12,-10,-8,-12,-10,-12,-12,-12,-11,-10,-11,-11,-12,-12,-12,-12,-4,-10,-5,-3,1,-2,-6,},{3,10,21,21,18,10,5,-1,-4,-3,-4,-2,-6,8,-3,-8,-10,-11,-9,-10,-11,-11,-9,-10,-11,-11,-12,-12,-12,-12,-12,-12,-12,-11,-12,-11,0,0,0,0,0,0,0,-11,-11,-11,-11,-12,-12,-11,-9,-5,-11,-11,},{-12,-12,-12,-11,-9,-11,-12,-12,-12,-11,-12,0,-11,-7,-3,2,0,-1,-1,6,14,16,15,8,1,-1,1,3,-7,-7,0,11,-4,-4,-7,-11,-9,-9,-10,-11,-8,-10,-11,-10,-12,-12,-12,-12,-12,-12,-12,-12,-12,-11,},{0,0,0,0,0,0,0,-10,-11,-10,-12,-12,-12,-12,-10,-3,-11,-11,-11,-11,-11,-12,-10,-12,-12,-12,-11,-11,-12,6,-9,-9,-4,-3,-3,-1,2,8,13,14,14,3,-3,-3,-4,4,-5,-7,8,19,-9,-8,-7,-9,},{-8,-11,-10,-11,-9,-11,-11,-11,-12,-12,-12,-12,-12,-11,-11,-12,-12,-11,0,0,0,0,0,0,0,-11,-11,-11,-12,-12,-12,-11,-9,-4,-9,-9,-12,-10,-9,-11,-12,-12,-12,-11,-11,-11,-12,4,-11,-10,-9,-4,-4,-6,},{-4,0,8,8,9,1,-1,-1,-4,5,-4,0,8,16,-9,-10,-6,-10,-9,-10,-9,-10,-11,-11,-10,-12,-12,-12,-11,-12,-12,-12,-11,-12,-12,-11,0,0,0,0,0,0,0,-12,-11,-11,-11,-11,-12,-12,-7,-7,-5,-9,},{-11,-11,-10,-11,-12,-12,-12,-11,-12,-12,-11,-2,-10,-9,-8,-8,-4,-5,-4,-1,6,9,6,2,-1,-6,-1,19,0,11,-5,0,-9,-10,-8,-10,-11,-11,-10,-11,-12,-10,-11,-11,-11,-12,-12,-12,-12,-12,-11,-12,-12,-11,},{0,0,0,0,0,0,0,-12,-12,-12,-10,-11,-12,-11,-9,-8,-9,-12,-11,-11,-11,-12,-12,-12,-12,-11,-12,-12,-11,0,-10,-10,-8,-5,-3,-2,-3,5,15,16,6,7,8,11,8,14,-2,-1,-9,-10,-9,-10,-9,-11,},{-11,-11,-12,-12,-11,-11,-12,-11,-11,-12,-12,-12,-11,-12,-11,-12,-12,-11,0,0,0,0,0,0,0,-11,-12,-11,-10,-10,-11,-11,-9,-9,-9,-12,-11,-11,-12,-12,-11,-12,-12,-11,-11,-12,-11,1,-8,-8,-8,-4,1,4,},{4,25,44,31,4,1,-1,5,0,-5,-6,-9,-11,-10,-11,-11,-11,-11,-12,-12,-12,-12,-11,-12,-11,-11,-12,-11,-12,-12,-12,-12,-12,-12,-12,-12,0,0,0,0,0,0,0,-11,-12,-11,-10,-11,-10,-11,-6,-9,-6,-12,},{-11,-11,-12,-12,-11,-12,-12,-12,-12,-12,-12,-4,-6,-7,-2,5,10,39,42,60,51,24,8,-5,-8,-9,-8,-10,-10,-10,-10,-11,-11,-11,-10,-11,-11,-12,-12,-12,-11,-12,-12,-12,-12,-12,-11,-11,-12,-12,-12,-12,-12,-12,},{0,0,0,0,0,0,0,-12,-12,-12,-11,-11,-11,-10,-8,-10,-3,-12,-11,-10,-12,-11,-12,-12,-12,-11,-12,-12,-12,0,-5,-5,1,43,29,47,35,39,31,12,0,-9,-9,-10,-8,-11,-9,-10,-10,-11,-11,-11,-11,-11,},{-11,-12,-11,-12,-11,-11,-12,-12,-12,-12,-11,-11,-12,-12,-12,-12,-12,-12,0,0,0,0,0,0,0,-12,-12,-12,-12,-12,-11,-11,-8,-10,-5,-11,-12,-11,-12,-12,-12,-12,-12,-11,-12,-12,-12,14,-6,0,16,15,17,6,},{5,8,7,-1,-8,-9,-11,-11,-10,-10,-10,-10,-10,-11,-11,-11,-11,-11,-12,-12,-12,-12,-11,-12,-12,-12,-12,-12,-12,-12,-11,-12,-12,-12,-12,-12,0,0,0,0,0,0,0,-11,-12,-12,-11,-12,-10,-7,-8,-8,-8,-10,},{-12,-12,-12,-11,-12,-12,-12,-12,-11,-12,-12,43,-6,0,1,-8,-1,-2,-4,-1,-1,-4,-8,-9,-9,-11,-11,-10,-10,-10,-10,-11,-11,-11,-11,-11,-12,-12,-12,-12,-11,-12,-12,-12,-11,-12,-11,-12,-11,-11,-12,-12,-12,-12,},{0,0,0,0,0,0,0,-11,-11,-12,-11,-11,-11,0,-8,-9,-9,-10,-11,-11,-11,-12,-12,-12,-11,-12,-12,-11,-11,11,-9,3,3,-2,-1,2,-4,0,1,-1,-6,-8,-10,-11,-11,-11,-9,-10,-10,-11,-11,-11,-11,-11,},{-12,-11,-12,-11,-12,-12,-12,-11,-12,-11,-11,-12,-12,-11,-12,-11,-11,-12,0,0,0,0,0,0,0,-12,-12,-12,-11,-11,-11,-2,-4,-4,-7,-9,-8,-10,-10,-10,-11,-12,-11,-12,-12,-12,-12,15,-6,3,27,2,22,23,},{2,18,9,3,0,-8,-9,-10,-10,-9,-9,-10,-10,-9,-11,-11,-11,-11,-12,-11,-12,-11,-12,-12,-11,-12,-12,-12,-12,-12,-12,-12,-12,-11,-12,-12,0,0,0,0,0,0,0,-12,-12,-12,-11,-11,-12,-7,-10,-9,-10,-11,},{-9,-11,-11,-11,-11,-12,-11,-12,-12,-12,-12,0,-9,-4,2,2,5,7,3,15,10,4,0,-7,-8,-8,-6,-9,-5,-11,-10,-9,-10,-11,-11,-11,-12,-11,-12,-11,-12,-12,-12,-12,-12,-12,-12,-12,-12,-11,-12,-12,-12,-12,},{0,0,0,0,0,0,0,-12,-12,-12,-11,-12,-12,-6,-10,-5,-8,-8,-9,-11,-12,-11,-12,-12,-11,-12,-12,-12,-12,-5,-11,-10,-8,-7,-7,-5,-7,-2,-1,-3,-5,-9,-9,-9,-9,-9,-6,-9,-9,-7,-10,-11,-10,-11,},{-12,-12,-12,-11,-11,-12,-12,-12,-12,-12,-12,-12,-12,-11,-12,-11,-12,-12,0,0,0,0,0,0,0,-11,-12,-11,-11,-12,-11,-7,-7,0,-4,-9,-12,-12,-12,-12,-12,-12,-12,-11,-12,-12,-12,-7,-10,-10,-8,-7,-8,-8,},{-8,-6,-5,-5,-7,-9,-10,-11,-11,-10,-10,-10,-11,-10,-11,-11,-11,-11,-11,-11,-12,-12,-11,-12,-12,-12,-12,-12,-12,-12,-12,-12,-12,-12,-12,-12,0,0,0,0,0,0,0,-11,-12,-12,-11,-11,-11,-4,-10,-8,-8,-11,},{-12,-12,-12,-12,-12,-12,-12,-12,-12,-12,-12,-10,-10,-9,-7,-7,-7,-8,-8,-5,-1,-3,-6,-10,-10,-11,-11,-10,-10,-9,-11,-11,-11,-11,-11,-11,-11,-12,-12,-12,-12,-12,-12,-12,-12,-12,-12,-12,-12,-12,-12,-12,-12,-12,},{0,0,0,0,0,0,0,-12,-12,-12,-12,-12,-12,-4,-11,-10,-11,-12,-12,-12,-12,-12,-12,-12,-12,-12,-12,-12,-12,-6,-10,-1,1,-4,3,-1,-3,4,5,0,-3,-9,-10,-11,-9,-6,-10,-7,-11,-11,-11,-11,-11,-11,},{-12,-12,-12,-12,-12,-12,-12,-12,-12,-12,-12,-12,-12,-12,-12,-12,-12,-12,0,0,0,0,0,0,0,-12,-12,-12,-12,-12,-12,-4,-10,-12,-12,-12,-12,-12,-12,-12,-12,-12,-12,-12,-12,-12,-12,-4,-11,-5,-6,-5,-2,-3,},{-3,0,2,-5,-7,-10,-11,-11,-11,-10,-10,-8,-11,-11,-11,-11,-11,-11,-12,-12,-12,-12,-12,-12,-12,-12,-12,-12,-12,-12,-12,-12,-12,-12,-12,-12,0,0,0,0,0,0,0,-12,-12,-12,-12,-12,-12,-2,-10,-11,-8,-11,},{-11,-12,-12,-12,-12,-12,-12,-12,-12,-12,-12,-8,-10,-9,-8,-9,-8,-9,-10,-8,-7,-9,-9,-11,-11,-12,-12,-11,-11,-10,-10,-11,-11,-11,-11,-11,-12,-12,-12,-12,-12,-12,-12,-12,-12,-12,-12,-12,-12,-12,-12,-12,-12,-12,},{0,0,0,0,0,0,0,-12,-12,-12,-12,-11,-11,-3,-10,-9,-7,-11,-12,-12,-12,-12,-12,-12,-12,-12,-12,-12,-12,7,-8,-9,-8,-4,1,-6,-6,-5,0,-2,-6,-9,-10,-11,-10,-11,-11,-11,-11,-11,-11,-11,-11,-12,},{-12,-12,-12,-12,-12,-12,-12,-12,-12,-12,-12,-12,-12,-12,-12,-12,-12,-12,0,0,0,0,0,0,0,-11,-12,-11,-10,-9,-8,0,-10,-10,-6,-11,-11,-11,-12,-12,-12,-12,-12,-12,-12,-12,-12,-1,-8,-9,-8,0,10,-5,},{-5,0,20,7,-1,-4,-7,-9,-10,-9,-10,-9,-11,-11,-11,-11,-11,-11,-12,-12,-12,-12,-12,-12,-12,-12,-12,-12,-12,-12,-12,-12,-12,-12,-12,-12,0,0,0,0,0,0,0,-11,-11,-11,-10,-9,-7,-6,-10,-11,-10,-12,},{-11,-12,-12,-12,-12,-12,-12,-12,-12,-12,-12,-5,-7,-10,-9,-8,-8,-10,-9,-5,3,3,-4,-6,-3,-8,-8,-8,-8,-7,-9,-11,-11,-11,-11,-11,-12,-12,-12,-12,-12,-12,-12,-12,-12,-12,-12,-12,-12,-12,-12,-12,-12,-11,},{0,0,0,0,0,0,0,-11,-11,-12,-11,-11,-11,-8,-11,-11,-11,-12,-12,-12,-12,-12,-12,-12,-12,-12,-12,-12,-12,-6,-10,-11,-9,-8,-9,-10,-11,-10,-9,-9,-10,-11,-11,-11,-11,-11,-10,-10,-11,-12,-11,-11,-11,-12,},{-12,-12,-12,-12,-12,-12,-12,-12,-12,-12,-12,-12,-12,-12,-12,-12,-12,-12,0,0,0,0,0,0,0,-11,-11,-12,-12,-12,-12,-9,-12,-11,-12,-12,-12,-12,-12,-12,-12,-12,-12,-12,-12,-12,-12,-8,-10,-10,-9,-8,-9,-10,},{-11,-10,-9,-9,-10,-11,-11,-12,-11,-11,-11,-11,-11,-12,-12,-11,-11,-11,-12,-12,-12,-12,-12,-12,-12,-12,-12,-12,-12,-12,-12,-12,-12,-12,-12,-12,0,0,0,0,0,0,0,-11,-11,-12,-12,-12,-12,-9,-12,-12,-12,-12,},{-12,-12,-12,-12,-12,-12,-12,-12,-12,-12,-12,-9,-11,-8,-9,-7,-7,-10,-10,-10,-9,-8,-10,-11,-11,-12,-11,-11,-10,-11,-11,-12,-11,-11,-11,-11,-12,-12,-12,-12,-12,-12,-12,-12,-12,-12,-12,-12,-12,-12,-12,-12,-12,-11,},{0,0,0,0,0,0,0,-11,-11,-12,-12,-11,-11,-9,-12,-11,-10,-11,-12,-11,-12,-12,-12,-12,-12,-12,-12,-12,-12,-4,-11,-8,-8,-2,-4,-8,-8,-8,-5,-6,-9,-10,-11,-11,-12,-10,-10,-10,-10,-11,-11,-11,-11,-11,},{-12,-12,-12,-12,-12,-12,-12,-12,-12,-12,-12,-12,-12,-12,-12,-12,-12,-11,0,0,0,0,0,0,0,-12,-11,-11,-12,-12,-12,-8,-12,-10,-9,-11,-12,-11,-12,-11,-12,-12,-11,-11,-12,-12,-12,-4,-11,-4,-7,2,4,-3,},{-2,-5,7,1,-7,-7,-10,-10,-10,-9,-10,-10,-7,-12,-11,-11,-11,-11,-12,-11,-12,-12,-12,-12,-12,-12,-12,-12,-12,-12,-12,-12,-12,-12,-12,-12,0,0,0,0,0,0,0,-12,-12,-12,-12,-11,-11,-10,-12,-11,-11,-12,},{-12,-12,-12,-12,-12,-12,-12,-12,-12,-12,-12,-6,-11,-10,-8,-2,-3,-7,-9,-7,-4,-3,-7,-9,-11,-11,-11,-10,-8,-8,-11,-11,-10,-11,-11,-11,-11,-11,-12,-12,-12,-12,-12,-12,-12,-12,-12,-12,-12,-12,-12,-12,-12,-12,},{0,0,0,0,0,0,0,-12,-12,-12,-12,-12,-12,-12,-12,-12,-12,-12,-12,-12,-12,-12,-12,-12,-12,-12,-12,-12,-12,-9,-11,-11,-8,-5,-7,-9,-11,-10,-8,-5,-9,-10,-11,-12,-11,-11,-8,-10,-11,-12,-10,-11,-11,-11,},{-12,-11,-12,-12,-12,-12,-12,-12,-12,-12,-12,-12,-12,-12,-12,-12,-12,-12,-9,-9,-9,-9,-9,-9,-9,-9,-9,-9,-9,-9,-9,-9,-9,-9,-9,-9,-9,-9,-9,-9,-9,-9,-9,-9,-9,-9,-9,-9,-9,-9,-8,-8,-7,-6}}};

#pragma DATA_SECTION(f_layer,".image")
//#pragma PERSISTENT(f_layer)
int16_t f_layer[4][47][47]={0};


#pragma DATA_SECTION(f_layer2,".image")
//#pragma PERSISTENT(f_layer2)
int16_t f_layer2[4][23][23]={0};


#pragma DATA_SECTION(f_layer3,".image")
int16_t f_layer3[8][16][16]={0};


#pragma DATA_SECTION(f_layer3_1,".image")
int16_t f_layer3_1[8][8][8]={0};

#pragma PERSISTENT(f_layer4)
int16_t f_layer4[512]={0};

#pragma PERSISTENT(f_layer5)
int16_t f_layer5[512]={0};

#pragma PERSISTENT(f_layer6)
int16_t f_layer6[256]={0};

#pragma PERSISTENT(f_layer7)
int16_t f_layer7[128]={0};

//#pragma PERSISTENT(f_layer_temp)
//int16_t f_layer_temp[1024]={0};
